digraph Tree {
    node [shape=box, style="filled", color="black", fontname="helvetica"] ;
    edge [fontname="helvetica"] ;
    0 [label="flipper_length \<= 0.362\ngini = 0.636\nsamples = 273\nvalue = [117, 53, 103]\nclass = Adelie", fillcolor="#ffffff"] ;
    0 -> 1 [labeldistance=2.5, labelangle=45, headlabel="True"] ;
    0 -> 8 [labeldistance=2.5, labelangle=-45, headlabel="False"] ;
    1 [label="bill_length \<= -0.151\ngini = 0.425\nsamples = 166\nvalue = [116, 49, 1]\nclass = Adelie", fillcolor="#a5c8e1"] ;
    1 -> 2 ;
    1 -> 3 ;
    2 [label="gini = 0.034\nsamples = 114\nvalue = [112, 2, 0]\nclass = Adelie", fillcolor="#267bb6"] ;
    3 [label="body_mass \<= -0.127\ngini = 0.177\nsamples = 52\nvalue = [4, 47, 1]\nclass = Chinstrap", fillcolor="#ff973c"] ;
    3 -> 4 ;
    3 -> 5 ;
    4 [label="gini = 0.000\nsamples = 40\nvalue = [0, 40, 0]\nclass = Chinstrap", fillcolor="#ff7f0e"] ;
    5 [label="bill_length \<= 0.821\ngini = 0.542\nsamples = 12\nvalue = [4, 7, 1]\nclass = Chinstrap", fillcolor="#ffe9d6"] ;
    5 -> 6 ;
    5 -> 7 ;
    6 [label="gini = 0.500\nsamples = 6\nvalue = [4, 1, 1]\nclass = Adelie", fillcolor="#b4d1e6"] ;
    7 [label="gini = 0.000\nsamples = 6\nvalue = [0, 6, 0]\nclass = Chinstrap", fillcolor="#ff7f0e"] ;
    8 [label="bill_depth \<= 0.0755\ngini = 0.090\nsamples = 107\nvalue = [1, 4, 102]\nclass = Gentoo", fillcolor="#3fa83f"] ;
    8 -> 9 ;
    8 -> 10 ;
    9 [label="gini = 0.000\nsamples = 102\nvalue = [0, 0, 102]\nclass = Gentoo", fillcolor="#2ca02c"] ;
    10 [label="gini = 0.320\nsamples = 5\nvalue = [1, 4, 0]\nclass = Chinstrap", fillcolor="#ffb26e"] ;
}
